digraph Tree {
node [shape=box] ;
0 [label="WeeksOnChart1 <= 0.5\ngini = 0.488\nsamples = 1765071\nvalue = [301350, 1196921, 266800]"] ;
1 [label="WeeksOnChart2 <= 0.5\ngini = 0.284\nsamples = 1442923\nvalue = [7106, 1196921, 238896]"] ;
0 -> 1 [labeldistance=2.5, labelangle=45, headlabel="True"] ;
2 [label="WeeksOnChart1 <= -0.5\ngini = 0.022\nsamples = 1210039\nvalue = [6597, 1196921, 6521]"] ;
1 -> 2 ;
3 [label="WeeksOnChart2 <= -0.5\ngini = 0.006\nsamples = 6616\nvalue = [6597, 0, 19]"] ;
2 -> 3 ;
4 [label="DailyFollowersMult1 <= 2.549\ngini = 0.495\nsamples = 42\nvalue = [23, 0, 19]"] ;
3 -> 4 ;
5 [label="DailyFollowersMult2 <= 0.804\ngini = 0.461\nsamples = 36\nvalue = [23, 0, 13]"] ;
4 -> 5 ;
6 [label="DailyFollowersMult1 <= 1.722\ngini = 0.426\nsamples = 13\nvalue = [4, 0, 9]"] ;
5 -> 6 ;
7 [label="gini = 0.346\nsamples = 9\nvalue = [2, 0, 7]"] ;
6 -> 7 ;
8 [label="gini = 0.5\nsamples = 4\nvalue = [2, 0, 2]"] ;
6 -> 8 ;
9 [label="DailyFollowersMult2 <= 1.266\ngini = 0.287\nsamples = 23\nvalue = [19, 0, 4]"] ;
5 -> 9 ;
10 [label="gini = 0.408\nsamples = 14\nvalue = [10, 0, 4]"] ;
9 -> 10 ;
11 [label="gini = 0.0\nsamples = 9\nvalue = [9, 0, 0]"] ;
9 -> 11 ;
12 [label="gini = 0.0\nsamples = 6\nvalue = [0, 0, 6]"] ;
4 -> 12 ;
13 [label="gini = 0.0\nsamples = 6574\nvalue = [6574, 0, 0]"] ;
3 -> 13 ;
14 [label="WeeksOnChart2 <= -0.5\ngini = 0.011\nsamples = 1203423\nvalue = [0, 1196921, 6502]"] ;
2 -> 14 ;
15 [label="gini = 0.0\nsamples = 6502\nvalue = [0, 0, 6502]"] ;
14 -> 15 ;
16 [label="gini = 0.0\nsamples = 1196921\nvalue = [0, 1196921, 0]"] ;
14 -> 16 ;
17 [label="WeeksOnChart1 <= -0.5\ngini = 0.004\nsamples = 232884\nvalue = [509, 0, 232375]"] ;
1 -> 17 ;
18 [label="LastPosition2 <= 57.5\ngini = 0.484\nsamples = 1242\nvalue = [509, 0, 733]"] ;
17 -> 18 ;
19 [label="DailyMentionsMult1 <= 0.747\ngini = 0.363\nsamples = 726\nvalue = [173, 0, 553]"] ;
18 -> 19 ;
20 [label="DailyFollowersMult1 <= 1.589\ngini = 0.486\nsamples = 113\nvalue = [66, 0, 47]"] ;
19 -> 20 ;
21 [label="DailyFollowersMult1 <= 0.511\ngini = 0.459\nsamples = 73\nvalue = [26, 0, 47]"] ;
20 -> 21 ;
22 [label="gini = 0.434\nsamples = 22\nvalue = [15, 0, 7]"] ;
21 -> 22 ;
23 [label="gini = 0.338\nsamples = 51\nvalue = [11, 0, 40]"] ;
21 -> 23 ;
24 [label="gini = 0.0\nsamples = 40\nvalue = [40, 0, 0]"] ;
20 -> 24 ;
25 [label="DailyFollowersMult1 <= 1.279\ngini = 0.288\nsamples = 613\nvalue = [107, 0, 506]"] ;
19 -> 25 ;
26 [label="LastPosition2 <= 18.5\ngini = 0.409\nsamples = 366\nvalue = [105, 0, 261]"] ;
25 -> 26 ;
27 [label="gini = 0.095\nsamples = 120\nvalue = [6, 0, 114]"] ;
26 -> 27 ;
28 [label="gini = 0.481\nsamples = 246\nvalue = [99, 0, 147]"] ;
26 -> 28 ;
29 [label="PositionTrend2 <= -15.5\ngini = 0.016\nsamples = 247\nvalue = [2, 0, 245]"] ;
25 -> 29 ;
30 [label="gini = 0.245\nsamples = 7\nvalue = [1, 0, 6]"] ;
29 -> 30 ;
31 [label="gini = 0.008\nsamples = 240\nvalue = [1, 0, 239]"] ;
29 -> 31 ;
32 [label="DailyFollowersMult1 <= 2.367\ngini = 0.454\nsamples = 516\nvalue = [336, 0, 180]"] ;
18 -> 32 ;
33 [label="DailyFollowersMult1 <= 0.804\ngini = 0.387\nsamples = 450\nvalue = [332, 0, 118]"] ;
32 -> 33 ;
34 [label="DailyFollowersMult2 <= 2.471\ngini = 0.204\nsamples = 130\nvalue = [115, 0, 15]"] ;
33 -> 34 ;
35 [label="gini = 0.154\nsamples = 119\nvalue = [109, 0, 10]"] ;
34 -> 35 ;
36 [label="gini = 0.496\nsamples = 11\nvalue = [6, 0, 5]"] ;
34 -> 36 ;
37 [label="DailyFollowersMult1 <= 1.083\ngini = 0.437\nsamples = 320\nvalue = [217, 0, 103]"] ;
33 -> 37 ;
38 [label="gini = 0.47\nsamples = 61\nvalue = [23, 0, 38]"] ;
37 -> 38 ;
39 [label="gini = 0.376\nsamples = 259\nvalue = [194, 0, 65]"] ;
37 -> 39 ;
40 [label="LastPosition2 <= 90.5\ngini = 0.114\nsamples = 66\nvalue = [4, 0, 62]"] ;
32 -> 40 ;
41 [label="gini = 0.0\nsamples = 45\nvalue = [0, 0, 45]"] ;
40 -> 41 ;
42 [label="LastPosition2 <= 100.5\ngini = 0.308\nsamples = 21\nvalue = [4, 0, 17]"] ;
40 -> 42 ;
43 [label="gini = 0.5\nsamples = 6\nvalue = [3, 0, 3]"] ;
42 -> 43 ;
44 [label="gini = 0.124\nsamples = 15\nvalue = [1, 0, 14]"] ;
42 -> 44 ;
45 [label="gini = 0.0\nsamples = 231642\nvalue = [0, 0, 231642]"] ;
17 -> 45 ;
46 [label="LastPosition2 <= 66.5\ngini = 0.158\nsamples = 322148\nvalue = [294244, 0, 27904]"] ;
0 -> 46 [labeldistance=2.5, labelangle=-45, headlabel="False"] ;
47 [label="LastPosition1 <= 42.5\ngini = 0.46\nsamples = 35560\nvalue = [12722, 0, 22838]"] ;
46 -> 47 ;
48 [label="LastPosition2 <= 27.5\ngini = 0.474\nsamples = 14202\nvalue = [8735, 0, 5467]"] ;
47 -> 48 ;
49 [label="LastPosition1 <= 16.5\ngini = 0.454\nsamples = 6451\nvalue = [2247, 0, 4204]"] ;
48 -> 49 ;
50 [label="LastPosition2 <= 9.5\ngini = 0.473\nsamples = 2475\nvalue = [1526, 0, 949]"] ;
49 -> 50 ;
51 [label="WeeksOnChart2 <= 57.5\ngini = 0.428\nsamples = 880\nvalue = [273, 0, 607]"] ;
50 -> 51 ;
52 [label="gini = 0.469\nsamples = 168\nvalue = [105, 0, 63]"] ;
51 -> 52 ;
53 [label="gini = 0.361\nsamples = 712\nvalue = [168, 0, 544]"] ;
51 -> 53 ;
54 [label="WeeksOnChart1 <= 50.5\ngini = 0.337\nsamples = 1595\nvalue = [1253, 0, 342]"] ;
50 -> 54 ;
55 [label="gini = 0.494\nsamples = 369\nvalue = [164, 0, 205]"] ;
54 -> 55 ;
56 [label="gini = 0.199\nsamples = 1226\nvalue = [1089, 0, 137]"] ;
54 -> 56 ;
57 [label="WeeksOnChart2 <= 1.5\ngini = 0.297\nsamples = 3976\nvalue = [721, 0, 3255]"] ;
49 -> 57 ;
58 [label="LastPosition2 <= 1.0\ngini = 0.313\nsamples = 180\nvalue = [145, 0, 35]"] ;
57 -> 58 ;
59 [label="gini = 0.0\nsamples = 31\nvalue = [0, 0, 31]"] ;
58 -> 59 ;
60 [label="gini = 0.052\nsamples = 149\nvalue = [145, 0, 4]"] ;
58 -> 60 ;
61 [label="LastPosition2 <= 15.5\ngini = 0.257\nsamples = 3796\nvalue = [576, 0, 3220]"] ;
57 -> 61 ;
62 [label="gini = 0.126\nsamples = 2062\nvalue = [139, 0, 1923]"] ;
61 -> 62 ;
63 [label="gini = 0.377\nsamples = 1734\nvalue = [437, 0, 1297]"] ;
61 -> 63 ;
64 [label="LastPosition2 <= 39.5\ngini = 0.273\nsamples = 7751\nvalue = [6488, 0, 1263]"] ;
48 -> 64 ;
65 [label="LastPosition1 <= 28.5\ngini = 0.42\nsamples = 2428\nvalue = [1701, 0, 727]"] ;
64 -> 65 ;
66 [label="PositionTrend1 <= 68.5\ngini = 0.238\nsamples = 1552\nvalue = [1338, 0, 214]"] ;
65 -> 66 ;
67 [label="gini = 0.129\nsamples = 1251\nvalue = [1164, 0, 87]"] ;
66 -> 67 ;
68 [label="gini = 0.488\nsamples = 301\nvalue = [174, 0, 127]"] ;
66 -> 68 ;
69 [label="WeeksOnChart2 <= 19.5\ngini = 0.485\nsamples = 876\nvalue = [363, 0, 513]"] ;
65 -> 69 ;
70 [label="gini = 0.0\nsamples = 72\nvalue = [72, 0, 0]"] ;
69 -> 70 ;
71 [label="gini = 0.462\nsamples = 804\nvalue = [291, 0, 513]"] ;
69 -> 71 ;
72 [label="WeeksOnChart1 <= 17.5\ngini = 0.181\nsamples = 5323\nvalue = [4787, 0, 536]"] ;
64 -> 72 ;
73 [label="LastPosition1 <= 16.5\ngini = 0.475\nsamples = 433\nvalue = [265, 0, 168]"] ;
72 -> 73 ;
74 [label="gini = 0.401\nsamples = 263\nvalue = [190, 0, 73]"] ;
73 -> 74 ;
75 [label="gini = 0.493\nsamples = 170\nvalue = [75, 0, 95]"] ;
73 -> 75 ;
76 [label="LastPosition1 <= 0.5\ngini = 0.139\nsamples = 4890\nvalue = [4522, 0, 368]"] ;
72 -> 76 ;
77 [label="gini = 0.406\nsamples = 53\nvalue = [15, 0, 38]"] ;
76 -> 77 ;
78 [label="gini = 0.127\nsamples = 4837\nvalue = [4507, 0, 330]"] ;
76 -> 78 ;
79 [label="WeeksOnChart2 <= 0.5\ngini = 0.304\nsamples = 21358\nvalue = [3987, 0, 17371]"] ;
47 -> 79 ;
80 [label="LastPosition2 <= 1.5\ngini = 0.086\nsamples = 1017\nvalue = [971, 0, 46]"] ;
79 -> 80 ;
81 [label="WeeksOnChart1 <= 193.5\ngini = 0.042\nsamples = 47\nvalue = [1, 0, 46]"] ;
80 -> 81 ;
82 [label="gini = 0.0\nsamples = 44\nvalue = [0, 0, 44]"] ;
81 -> 82 ;
83 [label="WeeksOnChart1 <= 205.0\ngini = 0.444\nsamples = 3\nvalue = [1, 0, 2]"] ;
81 -> 83 ;
84 [label="gini = 0.0\nsamples = 1\nvalue = [1, 0, 0]"] ;
83 -> 84 ;
85 [label="gini = 0.0\nsamples = 2\nvalue = [0, 0, 2]"] ;
83 -> 85 ;
86 [label="gini = 0.0\nsamples = 970\nvalue = [970, 0, 0]"] ;
80 -> 86 ;
87 [label="LastPosition2 <= 44.5\ngini = 0.253\nsamples = 20341\nvalue = [3016, 0, 17325]"] ;
79 -> 87 ;
88 [label="LastPosition1 <= 100.5\ngini = 0.136\nsamples = 14218\nvalue = [1043, 0, 13175]"] ;
87 -> 88 ;
89 [label="WeeksOnChart2 <= 10.0\ngini = 0.091\nsamples = 12062\nvalue = [579, 0, 11483]"] ;
88 -> 89 ;
90 [label="gini = 0.339\nsamples = 522\nvalue = [113, 0, 409]"] ;
89 -> 90 ;
91 [label="gini = 0.078\nsamples = 11540\nvalue = [466, 0, 11074]"] ;
89 -> 91 ;
92 [label="WeeksOnChart1 <= 50.5\ngini = 0.338\nsamples = 2156\nvalue = [464, 0, 1692]"] ;
88 -> 92 ;
93 [label="gini = 0.394\nsamples = 1597\nvalue = [430, 0, 1167]"] ;
92 -> 93 ;
94 [label="gini = 0.114\nsamples = 559\nvalue = [34, 0, 525]"] ;
92 -> 94 ;
95 [label="LastPosition1 <= 56.5\ngini = 0.437\nsamples = 6123\nvalue = [1973, 0, 4150]"] ;
87 -> 95 ;
96 [label="LastPosition2 <= 49.5\ngini = 0.473\nsamples = 1351\nvalue = [833, 0, 518]"] ;
95 -> 96 ;
97 [label="gini = 0.488\nsamples = 347\nvalue = [147, 0, 200]"] ;
96 -> 97 ;
98 [label="gini = 0.433\nsamples = 1004\nvalue = [686, 0, 318]"] ;
96 -> 98 ;
99 [label="LastPosition1 <= 99.5\ngini = 0.364\nsamples = 4772\nvalue = [1140, 0, 3632]"] ;
95 -> 99 ;
100 [label="gini = 0.307\nsamples = 3805\nvalue = [721, 0, 3084]"] ;
99 -> 100 ;
101 [label="gini = 0.491\nsamples = 967\nvalue = [419, 0, 548]"] ;
99 -> 101 ;
102 [label="WeeksOnChart2 <= 0.5\ngini = 0.035\nsamples = 286588\nvalue = [281522, 0, 5066]"] ;
46 -> 102 ;
103 [label="WeeksOnChart2 <= -0.5\ngini = 0.004\nsamples = 268727\nvalue = [268242, 0, 485]"] ;
102 -> 103 ;
104 [label="LastPosition1 <= 56.5\ngini = 0.46\nsamples = 1354\nvalue = [869, 0, 485]"] ;
103 -> 104 ;
105 [label="DailyFollowersMult2 <= 0.495\ngini = 0.318\nsamples = 722\nvalue = [579, 0, 143]"] ;
104 -> 105 ;
106 [label="LastPosition1 <= 34.5\ngini = 0.497\nsamples = 148\nvalue = [80, 0, 68]"] ;
105 -> 106 ;
107 [label="gini = 0.411\nsamples = 90\nvalue = [64, 0, 26]"] ;
106 -> 107 ;
108 [label="gini = 0.4\nsamples = 58\nvalue = [16, 0, 42]"] ;
106 -> 108 ;
109 [label="DailyFollowersMult2 <= 2.312\ngini = 0.227\nsamples = 574\nvalue = [499, 0, 75]"] ;
105 -> 109 ;
110 [label="gini = 0.272\nsamples = 461\nvalue = [386, 0, 75]"] ;
109 -> 110 ;
111 [label="gini = 0.0\nsamples = 113\nvalue = [113, 0, 0]"] ;
109 -> 111 ;
112 [label="DailyFollowersMult2 <= 1.279\ngini = 0.497\nsamples = 632\nvalue = [290, 0, 342]"] ;
104 -> 112 ;
113 [label="DailyMentionsMult2 <= 0.205\ngini = 0.422\nsamples = 404\nvalue = [122, 0, 282]"] ;
112 -> 113 ;
114 [label="gini = 0.173\nsamples = 94\nvalue = [9, 0, 85]"] ;
113 -> 114 ;
115 [label="gini = 0.463\nsamples = 310\nvalue = [113, 0, 197]"] ;
113 -> 115 ;
116 [label="DailyMentionsMult2 <= 0.819\ngini = 0.388\nsamples = 228\nvalue = [168, 0, 60]"] ;
112 -> 116 ;
117 [label="gini = 0.1\nsamples = 19\nvalue = [1, 0, 18]"] ;
116 -> 117 ;
118 [label="gini = 0.321\nsamples = 209\nvalue = [167, 0, 42]"] ;
116 -> 118 ;
119 [label="gini = 0.0\nsamples = 267373\nvalue = [267373, 0, 0]"] ;
103 -> 119 ;
120 [label="LastPosition1 <= 63.5\ngini = 0.381\nsamples = 17861\nvalue = [13280, 0, 4581]"] ;
102 -> 120 ;
121 [label="LastPosition2 <= 99.5\ngini = 0.211\nsamples = 11029\nvalue = [9708, 0, 1321]"] ;
120 -> 121 ;
122 [label="LastPosition1 <= 49.5\ngini = 0.098\nsamples = 7574\nvalue = [7182, 0, 392]"] ;
121 -> 122 ;
123 [label="LastPosition1 <= 0.5\ngini = 0.051\nsamples = 5823\nvalue = [5669, 0, 154]"] ;
122 -> 123 ;
124 [label="gini = 0.476\nsamples = 113\nvalue = [69, 0, 44]"] ;
123 -> 124 ;
125 [label="gini = 0.038\nsamples = 5710\nvalue = [5600, 0, 110]"] ;
123 -> 125 ;
126 [label="LastPosition2 <= 70.5\ngini = 0.235\nsamples = 1751\nvalue = [1513, 0, 238]"] ;
122 -> 126 ;
127 [label="gini = 0.445\nsamples = 257\nvalue = [171, 0, 86]"] ;
126 -> 127 ;
128 [label="gini = 0.183\nsamples = 1494\nvalue = [1342, 0, 152]"] ;
126 -> 128 ;
129 [label="LastPosition1 <= 39.5\ngini = 0.393\nsamples = 3455\nvalue = [2526, 0, 929]"] ;
121 -> 129 ;
130 [label="DailyFollowersMult2 <= 1.095\ngini = 0.295\nsamples = 2078\nvalue = [1705, 0, 373]"] ;
129 -> 130 ;
131 [label="gini = 0.182\nsamples = 1118\nvalue = [1005, 0, 113]"] ;
130 -> 131 ;
132 [label="gini = 0.395\nsamples = 960\nvalue = [700, 0, 260]"] ;
130 -> 132 ;
133 [label="DailyMentionsMult2 <= 0.99\ngini = 0.481\nsamples = 1377\nvalue = [821, 0, 556]"] ;
129 -> 133 ;
134 [label="gini = 0.243\nsamples = 325\nvalue = [279, 0, 46]"] ;
133 -> 134 ;
135 [label="gini = 0.5\nsamples = 1052\nvalue = [542, 0, 510]"] ;
133 -> 135 ;
136 [label="LastPosition2 <= 100.5\ngini = 0.499\nsamples = 6832\nvalue = [3572, 0, 3260]"] ;
120 -> 136 ;
137 [label="LastPosition2 <= 76.5\ngini = 0.485\nsamples = 4650\nvalue = [2732, 0, 1918]"] ;
136 -> 137 ;
138 [label="LastPosition1 <= 99.5\ngini = 0.484\nsamples = 1648\nvalue = [676, 0, 972]"] ;
137 -> 138 ;
139 [label="gini = 0.453\nsamples = 1266\nvalue = [438, 0, 828]"] ;
138 -> 139 ;
140 [label="gini = 0.47\nsamples = 382\nvalue = [238, 0, 144]"] ;
138 -> 140 ;
141 [label="LastPosition1 <= 75.5\ngini = 0.432\nsamples = 3002\nvalue = [2056, 0, 946]"] ;
137 -> 141 ;
142 [label="gini = 0.268\nsamples = 866\nvalue = [728, 0, 138]"] ;
141 -> 142 ;
143 [label="gini = 0.47\nsamples = 2136\nvalue = [1328, 0, 808]"] ;
141 -> 143 ;
144 [label="DailyMentionsMult2 <= 0.99\ngini = 0.474\nsamples = 2182\nvalue = [840, 0, 1342]"] ;
136 -> 144 ;
145 [label="WeeksOnChart2 <= 4.5\ngini = 0.45\nsamples = 470\nvalue = [309, 0, 161]"] ;
144 -> 145 ;
146 [label="gini = 0.437\nsamples = 121\nvalue = [39, 0, 82]"] ;
145 -> 146 ;
147 [label="gini = 0.35\nsamples = 349\nvalue = [270, 0, 79]"] ;
145 -> 147 ;
148 [label="DailyFollowersMult2 <= 5.356\ngini = 0.428\nsamples = 1712\nvalue = [531, 0, 1181]"] ;
144 -> 148 ;
149 [label="gini = 0.415\nsamples = 1659\nvalue = [488, 0, 1171]"] ;
148 -> 149 ;
150 [label="gini = 0.306\nsamples = 53\nvalue = [43, 0, 10]"] ;
148 -> 150 ;
}