digraph Tree {
node [shape=box] ;
0 [label="WeeksOnChart1 <= 0.5\ngini = 0.139\nsamples = 568150\nvalue = [42731, 525419]"] ;
1 [label="WeeksOnChart1 <= -0.5\ngini = 0.413\nsamples = 42093\nvalue = [29821, 12272]"] ;
0 -> 1 [labeldistance=2.5, labelangle=45, headlabel="True"] ;
2 [label="WeeksOnChart2 <= 0.5\ngini = 0.024\nsamples = 12421\nvalue = [149, 12272]"] ;
1 -> 2 ;
3 [label="WeeksOnChart2 <= -0.5\ngini = 0.002\nsamples = 11901\nvalue = [13, 11888]"] ;
2 -> 3 ;
4 [label="DailyFollowersMult2 <= 2.141\ngini = 0.427\nsamples = 42\nvalue = [13, 29]"] ;
3 -> 4 ;
5 [label="DailyFollowersMult1 <= 0.495\ngini = 0.499\nsamples = 27\nvalue = [13, 14]"] ;
4 -> 5 ;
6 [label="DailyFollowersMult2 <= 1.722\ngini = 0.278\nsamples = 6\nvalue = [1, 5]"] ;
5 -> 6 ;
7 [label="gini = 0.0\nsamples = 5\nvalue = [0, 5]"] ;
6 -> 7 ;
8 [label="gini = 0.0\nsamples = 1\nvalue = [1, 0]"] ;
6 -> 8 ;
9 [label="DailyFollowersMult1 <= 1.111\ngini = 0.49\nsamples = 21\nvalue = [12, 9]"] ;
5 -> 9 ;
10 [label="gini = 0.375\nsamples = 12\nvalue = [9, 3]"] ;
9 -> 10 ;
11 [label="gini = 0.444\nsamples = 9\nvalue = [3, 6]"] ;
9 -> 11 ;
12 [label="gini = 0.0\nsamples = 15\nvalue = [0, 15]"] ;
4 -> 12 ;
13 [label="gini = 0.0\nsamples = 11859\nvalue = [0, 11859]"] ;
3 -> 13 ;
14 [label="DailyFollowersMult1 <= 1.083\ngini = 0.386\nsamples = 520\nvalue = [136, 384]"] ;
2 -> 14 ;
15 [label="DailyFollowersMult1 <= 0.837\ngini = 0.473\nsamples = 330\nvalue = [127, 203]"] ;
14 -> 15 ;
16 [label="LastPosition2 <= 46.5\ngini = 0.387\nsamples = 248\nvalue = [65, 183]"] ;
15 -> 16 ;
17 [label="PositionTrend2 <= 7.5\ngini = 0.444\nsamples = 57\nvalue = [38, 19]"] ;
16 -> 17 ;
18 [label="gini = 0.245\nsamples = 42\nvalue = [36, 6]"] ;
17 -> 18 ;
19 [label="gini = 0.231\nsamples = 15\nvalue = [2, 13]"] ;
17 -> 19 ;
20 [label="DailyFollowersMult1 <= 0.183\ngini = 0.243\nsamples = 191\nvalue = [27, 164]"] ;
16 -> 20 ;
21 [label="gini = 0.13\nsamples = 100\nvalue = [7, 93]"] ;
20 -> 21 ;
22 [label="gini = 0.343\nsamples = 91\nvalue = [20, 71]"] ;
20 -> 22 ;
23 [label="LastPosition2 <= 63.5\ngini = 0.369\nsamples = 82\nvalue = [62, 20]"] ;
15 -> 23 ;
24 [label="gini = 0.0\nsamples = 32\nvalue = [32, 0]"] ;
23 -> 24 ;
25 [label="PositionTrend2 <= 7.0\ngini = 0.48\nsamples = 50\nvalue = [30, 20]"] ;
23 -> 25 ;
26 [label="gini = 0.458\nsamples = 45\nvalue = [29, 16]"] ;
25 -> 26 ;
27 [label="gini = 0.32\nsamples = 5\nvalue = [1, 4]"] ;
25 -> 27 ;
28 [label="DailyFollowersMult1 <= 2.312\ngini = 0.09\nsamples = 190\nvalue = [9, 181]"] ;
14 -> 28 ;
29 [label="DailyFollowersMult2 <= 0.012\ngini = 0.026\nsamples = 152\nvalue = [2, 150]"] ;
28 -> 29 ;
30 [label="WeeksOnChart2 <= 1.5\ngini = 0.198\nsamples = 9\nvalue = [1, 8]"] ;
29 -> 30 ;
31 [label="gini = 0.444\nsamples = 3\nvalue = [1, 2]"] ;
30 -> 31 ;
32 [label="gini = 0.0\nsamples = 6\nvalue = [0, 6]"] ;
30 -> 32 ;
33 [label="DailyFollowersMult2 <= 2.966\ngini = 0.014\nsamples = 143\nvalue = [1, 142]"] ;
29 -> 33 ;
34 [label="gini = 0.0\nsamples = 117\nvalue = [0, 117]"] ;
33 -> 34 ;
35 [label="gini = 0.074\nsamples = 26\nvalue = [1, 25]"] ;
33 -> 35 ;
36 [label="LastPosition2 <= 61.0\ngini = 0.301\nsamples = 38\nvalue = [7, 31]"] ;
28 -> 36 ;
37 [label="gini = 0.0\nsamples = 5\nvalue = [5, 0]"] ;
36 -> 37 ;
38 [label="WeeksOnChart2 <= 5.0\ngini = 0.114\nsamples = 33\nvalue = [2, 31]"] ;
36 -> 38 ;
39 [label="gini = 0.5\nsamples = 2\nvalue = [1, 1]"] ;
38 -> 39 ;
40 [label="gini = 0.062\nsamples = 31\nvalue = [1, 30]"] ;
38 -> 40 ;
41 [label="gini = 0.0\nsamples = 29672\nvalue = [29672, 0]"] ;
1 -> 41 ;
42 [label="WeeksOnChart2 <= 0.5\ngini = 0.048\nsamples = 526057\nvalue = [12910, 513147]"] ;
0 -> 42 [labeldistance=2.5, labelangle=-45, headlabel="False"] ;
43 [label="WeeksOnChart2 <= -0.5\ngini = 0.003\nsamples = 474337\nvalue = [691, 473646]"] ;
42 -> 43 ;
44 [label="DailyFollowersMult2 <= 1.279\ngini = 0.434\nsamples = 2168\nvalue = [691, 1477]"] ;
43 -> 44 ;
45 [label="LastPosition1 <= 49.5\ngini = 0.495\nsamples = 1318\nvalue = [592, 726]"] ;
44 -> 45 ;
46 [label="DailyMentionsMult2 <= 0.205\ngini = 0.401\nsamples = 768\nvalue = [213, 555]"] ;
45 -> 46 ;
47 [label="DailyFollowersMult2 <= 0.593\ngini = 0.477\nsamples = 145\nvalue = [88, 57]"] ;
46 -> 47 ;
48 [label="gini = 0.346\nsamples = 99\nvalue = [77, 22]"] ;
47 -> 48 ;
49 [label="gini = 0.364\nsamples = 46\nvalue = [11, 35]"] ;
47 -> 49 ;
50 [label="LastPosition1 <= 18.5\ngini = 0.321\nsamples = 623\nvalue = [125, 498]"] ;
46 -> 50 ;
51 [label="gini = 0.096\nsamples = 237\nvalue = [12, 225]"] ;
50 -> 51 ;
52 [label="gini = 0.414\nsamples = 386\nvalue = [113, 273]"] ;
50 -> 52 ;
53 [label="DailyFollowersMult2 <= 0.495\ngini = 0.428\nsamples = 550\nvalue = [379, 171]"] ;
45 -> 53 ;
54 [label="LastPosition1 <= 58.5\ngini = 0.232\nsamples = 179\nvalue = [155, 24]"] ;
53 -> 54 ;
55 [label="gini = 0.408\nsamples = 35\nvalue = [25, 10]"] ;
54 -> 55 ;
56 [label="gini = 0.176\nsamples = 144\nvalue = [130, 14]"] ;
54 -> 56 ;
57 [label="DailyFollowersMult2 <= 1.083\ngini = 0.478\nsamples = 371\nvalue = [224, 147]"] ;
53 -> 57 ;
58 [label="gini = 0.491\nsamples = 204\nvalue = [88, 116]"] ;
57 -> 58 ;
59 [label="gini = 0.302\nsamples = 167\nvalue = [136, 31]"] ;
57 -> 59 ;
60 [label="DailyMentionsMult2 <= 0.819\ngini = 0.206\nsamples = 850\nvalue = [99, 751]"] ;
44 -> 60 ;
61 [label="WeeksOnChart1 <= 19.5\ngini = 0.054\nsamples = 36\nvalue = [35, 1]"] ;
60 -> 61 ;
62 [label="DailyFollowersMult1 <= 1.61\ngini = 0.5\nsamples = 2\nvalue = [1, 1]"] ;
61 -> 62 ;
63 [label="gini = 0.0\nsamples = 1\nvalue = [1, 0]"] ;
62 -> 63 ;
64 [label="gini = 0.0\nsamples = 1\nvalue = [0, 1]"] ;
62 -> 64 ;
65 [label="gini = 0.0\nsamples = 34\nvalue = [34, 0]"] ;
61 -> 65 ;
66 [label="LastPosition1 <= 62.5\ngini = 0.145\nsamples = 814\nvalue = [64, 750]"] ;
60 -> 66 ;
67 [label="LastPosition1 <= 58.5\ngini = 0.027\nsamples = 516\nvalue = [7, 509]"] ;
66 -> 67 ;
68 [label="gini = 0.016\nsamples = 485\nvalue = [4, 481]"] ;
67 -> 68 ;
69 [label="gini = 0.175\nsamples = 31\nvalue = [3, 28]"] ;
67 -> 69 ;
70 [label="DailyFollowersMult2 <= 2.367\ngini = 0.309\nsamples = 298\nvalue = [57, 241]"] ;
66 -> 70 ;
71 [label="gini = 0.44\nsamples = 156\nvalue = [51, 105]"] ;
70 -> 71 ;
72 [label="gini = 0.081\nsamples = 142\nvalue = [6, 136]"] ;
70 -> 72 ;
73 [label="gini = 0.0\nsamples = 472169\nvalue = [0, 472169]"] ;
43 -> 73 ;
74 [label="LastPosition1 <= 49.5\ngini = 0.361\nsamples = 51720\nvalue = [12219, 39501]"] ;
42 -> 74 ;
75 [label="LastPosition2 <= 27.5\ngini = 0.192\nsamples = 33801\nvalue = [3639, 30162]"] ;
74 -> 75 ;
76 [label="LastPosition1 <= 22.5\ngini = 0.415\nsamples = 5147\nvalue = [1511, 3636]"] ;
75 -> 76 ;
77 [label="LastPosition2 <= 7.5\ngini = 0.28\nsamples = 3400\nvalue = [572, 2828]"] ;
76 -> 77 ;
78 [label="LastPosition1 <= 5.5\ngini = 0.497\nsamples = 681\nvalue = [313, 368]"] ;
77 -> 78 ;
79 [label="gini = 0.367\nsamples = 211\nvalue = [51, 160]"] ;
78 -> 79 ;
80 [label="gini = 0.493\nsamples = 470\nvalue = [262, 208]"] ;
78 -> 80 ;
81 [label="LastPosition1 <= 13.5\ngini = 0.172\nsamples = 2719\nvalue = [259, 2460]"] ;
77 -> 81 ;
82 [label="gini = 0.069\nsamples = 1837\nvalue = [66, 1771]"] ;
81 -> 82 ;
83 [label="gini = 0.342\nsamples = 882\nvalue = [193, 689]"] ;
81 -> 83 ;
84 [label="WeeksOnChart2 <= 145.5\ngini = 0.497\nsamples = 1747\nvalue = [939, 808]"] ;
76 -> 84 ;
85 [label="PositionTrend2 <= 22.5\ngini = 0.493\nsamples = 1089\nvalue = [479, 610]"] ;
84 -> 85 ;
86 [label="gini = 0.475\nsamples = 365\nvalue = [223, 142]"] ;
85 -> 86 ;
87 [label="gini = 0.457\nsamples = 724\nvalue = [256, 468]"] ;
85 -> 87 ;
88 [label="DailyFollowersMult1 <= 1.129\ngini = 0.421\nsamples = 658\nvalue = [460, 198]"] ;
84 -> 88 ;
89 [label="gini = 0.353\nsamples = 512\nvalue = [395, 117]"] ;
88 -> 89 ;
90 [label="gini = 0.494\nsamples = 146\nvalue = [65, 81]"] ;
88 -> 90 ;
91 [label="LastPosition2 <= 99.5\ngini = 0.138\nsamples = 28654\nvalue = [2128, 26526]"] ;
75 -> 91 ;
92 [label="LastPosition1 <= 39.5\ngini = 0.095\nsamples = 23945\nvalue = [1192, 22753]"] ;
91 -> 92 ;
93 [label="PositionTrend1 <= 100.5\ngini = 0.057\nsamples = 20297\nvalue = [593, 19704]"] ;
92 -> 93 ;
94 [label="gini = 0.051\nsamples = 20163\nvalue = [532, 19631]"] ;
93 -> 94 ;
95 [label="gini = 0.496\nsamples = 134\nvalue = [61, 73]"] ;
93 -> 95 ;
96 [label="LastPosition2 <= 48.5\ngini = 0.274\nsamples = 3648\nvalue = [599, 3049]"] ;
92 -> 96 ;
97 [label="gini = 0.499\nsamples = 811\nvalue = [421, 390]"] ;
96 -> 97 ;
98 [label="gini = 0.118\nsamples = 2837\nvalue = [178, 2659]"] ;
96 -> 98 ;
99 [label="WeeksOnChart2 <= 52.5\ngini = 0.319\nsamples = 4709\nvalue = [936, 3773]"] ;
91 -> 99 ;
100 [label="DailyFollowersMult2 <= 1.095\ngini = 0.38\nsamples = 3382\nvalue = [863, 2519]"] ;
99 -> 100 ;
101 [label="gini = 0.274\nsamples = 1914\nvalue = [314, 1600]"] ;
100 -> 101 ;
102 [label="gini = 0.468\nsamples = 1468\nvalue = [549, 919]"] ;
100 -> 102 ;
103 [label="DailyFollowersMult2 <= 2.822\ngini = 0.104\nsamples = 1327\nvalue = [73, 1254]"] ;
99 -> 103 ;
104 [label="gini = 0.057\nsamples = 1115\nvalue = [33, 1082]"] ;
103 -> 104 ;
105 [label="gini = 0.306\nsamples = 212\nvalue = [40, 172]"] ;
103 -> 105 ;
106 [label="LastPosition2 <= 54.5\ngini = 0.499\nsamples = 17919\nvalue = [8580, 9339]"] ;
74 -> 106 ;
107 [label="LastPosition1 <= 99.5\ngini = 0.347\nsamples = 5341\nvalue = [4149, 1192]"] ;
106 -> 107 ;
108 [label="LastPosition1 <= 69.5\ngini = 0.313\nsamples = 4811\nvalue = [3878, 933]"] ;
107 -> 108 ;
109 [label="DailyFollowersMult1 <= 1.597\ngini = 0.386\nsamples = 2842\nvalue = [2099, 743]"] ;
108 -> 109 ;
110 [label="gini = 0.357\nsamples = 2614\nvalue = [2006, 608]"] ;
109 -> 110 ;
111 [label="gini = 0.483\nsamples = 228\nvalue = [93, 135]"] ;
109 -> 111 ;
112 [label="WeeksOnChart2 <= 14.5\ngini = 0.174\nsamples = 1969\nvalue = [1779, 190]"] ;
108 -> 112 ;
113 [label="gini = 0.36\nsamples = 382\nvalue = [292, 90]"] ;
112 -> 113 ;
114 [label="gini = 0.118\nsamples = 1587\nvalue = [1487, 100]"] ;
112 -> 114 ;
115 [label="DailyMentionsMult1 <= 0.99\ngini = 0.5\nsamples = 530\nvalue = [271, 259]"] ;
107 -> 115 ;
116 [label="DailyFollowersMult1 <= 0.173\ngini = 0.182\nsamples = 99\nvalue = [89, 10]"] ;
115 -> 116 ;
117 [label="gini = 0.0\nsamples = 6\nvalue = [0, 6]"] ;
116 -> 117 ;
118 [label="gini = 0.082\nsamples = 93\nvalue = [89, 4]"] ;
116 -> 118 ;
119 [label="DailyFollowersMult1 <= 0.614\ngini = 0.488\nsamples = 431\nvalue = [182, 249]"] ;
115 -> 119 ;
120 [label="gini = 0.037\nsamples = 53\nvalue = [1, 52]"] ;
119 -> 120 ;
121 [label="gini = 0.499\nsamples = 378\nvalue = [181, 197]"] ;
119 -> 121 ;
122 [label="LastPosition1 <= 70.5\ngini = 0.456\nsamples = 12578\nvalue = [4431, 8147]"] ;
106 -> 122 ;
123 [label="LastPosition2 <= 100.5\ngini = 0.342\nsamples = 6183\nvalue = [1355, 4828]"] ;
122 -> 123 ;
124 [label="LastPosition2 <= 70.5\ngini = 0.237\nsamples = 4560\nvalue = [626, 3934]"] ;
123 -> 124 ;
125 [label="gini = 0.392\nsamples = 1557\nvalue = [416, 1141]"] ;
124 -> 125 ;
126 [label="gini = 0.13\nsamples = 3003\nvalue = [210, 2793]"] ;
124 -> 126 ;
127 [label="WeeksOnChart2 <= 165.0\ngini = 0.495\nsamples = 1623\nvalue = [729, 894]"] ;
123 -> 127 ;
128 [label="gini = 0.5\nsamples = 1488\nvalue = [728, 760]"] ;
127 -> 128 ;
129 [label="gini = 0.015\nsamples = 135\nvalue = [1, 134]"] ;
127 -> 129 ;
130 [label="LastPosition1 <= 99.5\ngini = 0.499\nsamples = 6395\nvalue = [3076, 3319]"] ;
122 -> 130 ;
131 [label="LastPosition2 <= 100.5\ngini = 0.495\nsamples = 4817\nvalue = [2638, 2179]"] ;
130 -> 131 ;
132 [label="gini = 0.5\nsamples = 3373\nvalue = [1644, 1729]"] ;
131 -> 132 ;
133 [label="gini = 0.429\nsamples = 1444\nvalue = [994, 450]"] ;
131 -> 133 ;
134 [label="DailyMentionsMult1 <= 0.99\ngini = 0.401\nsamples = 1578\nvalue = [438, 1140]"] ;
130 -> 134 ;
135 [label="gini = 0.5\nsamples = 370\nvalue = [188, 182]"] ;
134 -> 135 ;
136 [label="gini = 0.328\nsamples = 1208\nvalue = [250, 958]"] ;
134 -> 136 ;
}