digraph Tree {
node [shape=box] ;
0 [label="WeeksOnChart1 <= 0.5\ngini = 0.128\nsamples = 619800\nvalue = [42731, 577069]"] ;
1 [label="WeeksOnChart1 <= -0.5\ngini = 0.432\nsamples = 43610\nvalue = [29821, 13789]"] ;
0 -> 1 [labeldistance=2.5, labelangle=45, headlabel="True"] ;
2 [label="WeeksOnChart2 <= 0.5\ngini = 0.021\nsamples = 13938\nvalue = [149, 13789]"] ;
1 -> 2 ;
3 [label="WeeksOnChart2 <= -0.5\ngini = 0.002\nsamples = 13305\nvalue = [13, 13292]"] ;
2 -> 3 ;
4 [label="DailyFollowersMult2 <= 2.141\ngini = 0.411\nsamples = 45\nvalue = [13, 32]"] ;
3 -> 4 ;
5 [label="DailyMentionsMult2 <= 0.819\ngini = 0.491\nsamples = 30\nvalue = [13, 17]"] ;
4 -> 5 ;
6 [label="DailyFollowersMult1 <= 0.44\ngini = 0.32\nsamples = 5\nvalue = [4, 1]"] ;
5 -> 6 ;
7 [label="gini = 0.5\nsamples = 2\nvalue = [1, 1]"] ;
6 -> 7 ;
8 [label="gini = 0.0\nsamples = 3\nvalue = [3, 0]"] ;
6 -> 8 ;
9 [label="DailyMentionsMult1 <= 0.928\ngini = 0.461\nsamples = 25\nvalue = [9, 16]"] ;
5 -> 9 ;
10 [label="gini = 0.444\nsamples = 6\nvalue = [4, 2]"] ;
9 -> 10 ;
11 [label="gini = 0.388\nsamples = 19\nvalue = [5, 14]"] ;
9 -> 11 ;
12 [label="gini = 0.0\nsamples = 15\nvalue = [0, 15]"] ;
4 -> 12 ;
13 [label="gini = 0.0\nsamples = 13260\nvalue = [0, 13260]"] ;
3 -> 13 ;
14 [label="DailyFollowersMult1 <= 1.083\ngini = 0.337\nsamples = 633\nvalue = [136, 497]"] ;
2 -> 14 ;
15 [label="DailyFollowersMult1 <= 0.837\ngini = 0.473\nsamples = 330\nvalue = [127, 203]"] ;
14 -> 15 ;
16 [label="LastPosition2 <= 46.5\ngini = 0.387\nsamples = 248\nvalue = [65, 183]"] ;
15 -> 16 ;
17 [label="PositionTrend2 <= 7.5\ngini = 0.444\nsamples = 57\nvalue = [38, 19]"] ;
16 -> 17 ;
18 [label="gini = 0.245\nsamples = 42\nvalue = [36, 6]"] ;
17 -> 18 ;
19 [label="gini = 0.231\nsamples = 15\nvalue = [2, 13]"] ;
17 -> 19 ;
20 [label="DailyFollowersMult1 <= 0.183\ngini = 0.243\nsamples = 191\nvalue = [27, 164]"] ;
16 -> 20 ;
21 [label="gini = 0.13\nsamples = 100\nvalue = [7, 93]"] ;
20 -> 21 ;
22 [label="gini = 0.343\nsamples = 91\nvalue = [20, 71]"] ;
20 -> 22 ;
23 [label="LastPosition2 <= 63.5\ngini = 0.369\nsamples = 82\nvalue = [62, 20]"] ;
15 -> 23 ;
24 [label="gini = 0.0\nsamples = 32\nvalue = [32, 0]"] ;
23 -> 24 ;
25 [label="PositionTrend2 <= 7.0\ngini = 0.48\nsamples = 50\nvalue = [30, 20]"] ;
23 -> 25 ;
26 [label="gini = 0.458\nsamples = 45\nvalue = [29, 16]"] ;
25 -> 26 ;
27 [label="gini = 0.32\nsamples = 5\nvalue = [1, 4]"] ;
25 -> 27 ;
28 [label="DailyFollowersMult1 <= 2.312\ngini = 0.058\nsamples = 303\nvalue = [9, 294]"] ;
14 -> 28 ;
29 [label="DailyFollowersMult2 <= 0.007\ngini = 0.015\nsamples = 265\nvalue = [2, 263]"] ;
28 -> 29 ;
30 [label="WeeksOnChart2 <= 1.5\ngini = 0.165\nsamples = 11\nvalue = [1, 10]"] ;
29 -> 30 ;
31 [label="gini = 0.32\nsamples = 5\nvalue = [1, 4]"] ;
30 -> 31 ;
32 [label="gini = 0.0\nsamples = 6\nvalue = [0, 6]"] ;
30 -> 32 ;
33 [label="DailyFollowersMult2 <= 2.966\ngini = 0.008\nsamples = 254\nvalue = [1, 253]"] ;
29 -> 33 ;
34 [label="gini = 0.0\nsamples = 227\nvalue = [0, 227]"] ;
33 -> 34 ;
35 [label="gini = 0.071\nsamples = 27\nvalue = [1, 26]"] ;
33 -> 35 ;
36 [label="LastPosition2 <= 61.0\ngini = 0.301\nsamples = 38\nvalue = [7, 31]"] ;
28 -> 36 ;
37 [label="gini = 0.0\nsamples = 5\nvalue = [5, 0]"] ;
36 -> 37 ;
38 [label="PositionTrend2 <= 8.5\ngini = 0.114\nsamples = 33\nvalue = [2, 31]"] ;
36 -> 38 ;
39 [label="gini = 0.062\nsamples = 31\nvalue = [1, 30]"] ;
38 -> 39 ;
40 [label="gini = 0.5\nsamples = 2\nvalue = [1, 1]"] ;
38 -> 40 ;
41 [label="gini = 0.0\nsamples = 29672\nvalue = [29672, 0]"] ;
1 -> 41 ;
42 [label="WeeksOnChart2 <= 0.5\ngini = 0.044\nsamples = 576190\nvalue = [12910, 563280]"] ;
0 -> 42 [labeldistance=2.5, labelangle=-45, headlabel="False"] ;
43 [label="WeeksOnChart2 <= -0.5\ngini = 0.003\nsamples = 519814\nvalue = [691, 519123]"] ;
42 -> 43 ;
44 [label="DailyMentionsMult2 <= 0.747\ngini = 0.416\nsamples = 2346\nvalue = [691, 1655]"] ;
43 -> 44 ;
45 [label="LastPosition1 <= 36.5\ngini = 0.427\nsamples = 320\nvalue = [221, 99]"] ;
44 -> 45 ;
46 [label="DailyMentionsMult2 <= 0.524\ngini = 0.5\nsamples = 161\nvalue = [83, 78]"] ;
45 -> 46 ;
47 [label="DailyFollowersMult2 <= 0.511\ngini = 0.489\nsamples = 136\nvalue = [58, 78]"] ;
46 -> 47 ;
48 [label="gini = 0.391\nsamples = 75\nvalue = [55, 20]"] ;
47 -> 48 ;
49 [label="gini = 0.094\nsamples = 61\nvalue = [3, 58]"] ;
47 -> 49 ;
50 [label="gini = 0.0\nsamples = 25\nvalue = [25, 0]"] ;
46 -> 50 ;
51 [label="DailyMentionsMult2 <= 0.205\ngini = 0.229\nsamples = 159\nvalue = [138, 21]"] ;
45 -> 51 ;
52 [label="LastPosition1 <= 99.0\ngini = 0.158\nsamples = 139\nvalue = [127, 12]"] ;
51 -> 52 ;
53 [label="gini = 0.103\nsamples = 129\nvalue = [122, 7]"] ;
52 -> 53 ;
54 [label="gini = 0.5\nsamples = 10\nvalue = [5, 5]"] ;
52 -> 54 ;
55 [label="DailyFollowersMult2 <= 1.506\ngini = 0.495\nsamples = 20\nvalue = [11, 9]"] ;
51 -> 55 ;
56 [label="gini = 0.198\nsamples = 9\nvalue = [1, 8]"] ;
55 -> 56 ;
57 [label="gini = 0.165\nsamples = 11\nvalue = [10, 1]"] ;
55 -> 57 ;
58 [label="DailyFollowersMult2 <= 1.24\ngini = 0.356\nsamples = 2026\nvalue = [470, 1556]"] ;
44 -> 58 ;
59 [label="LastPosition1 <= 51.5\ngini = 0.46\nsamples = 1131\nvalue = [406, 725]"] ;
58 -> 59 ;
60 [label="LastPosition1 <= 18.5\ngini = 0.32\nsamples = 659\nvalue = [132, 527]"] ;
59 -> 60 ;
61 [label="gini = 0.095\nsamples = 240\nvalue = [12, 228]"] ;
60 -> 61 ;
62 [label="gini = 0.409\nsamples = 419\nvalue = [120, 299]"] ;
60 -> 62 ;
63 [label="DailyFollowersMult2 <= 1.074\ngini = 0.487\nsamples = 472\nvalue = [274, 198]"] ;
59 -> 63 ;
64 [label="gini = 0.5\nsamples = 346\nvalue = [172, 174]"] ;
63 -> 64 ;
65 [label="gini = 0.308\nsamples = 126\nvalue = [102, 24]"] ;
63 -> 65 ;
66 [label="LastPosition1 <= 62.5\ngini = 0.133\nsamples = 895\nvalue = [64, 831]"] ;
58 -> 66 ;
67 [label="LastPosition1 <= 58.5\ngini = 0.024\nsamples = 584\nvalue = [7, 577]"] ;
66 -> 67 ;
68 [label="gini = 0.014\nsamples = 549\nvalue = [4, 545]"] ;
67 -> 68 ;
69 [label="gini = 0.157\nsamples = 35\nvalue = [3, 32]"] ;
67 -> 69 ;
70 [label="DailyFollowersMult2 <= 2.367\ngini = 0.299\nsamples = 311\nvalue = [57, 254]"] ;
66 -> 70 ;
71 [label="gini = 0.421\nsamples = 169\nvalue = [51, 118]"] ;
70 -> 71 ;
72 [label="gini = 0.081\nsamples = 142\nvalue = [6, 136]"] ;
70 -> 72 ;
73 [label="gini = 0.0\nsamples = 517468\nvalue = [0, 517468]"] ;
43 -> 73 ;
74 [label="LastPosition1 <= 49.5\ngini = 0.34\nsamples = 56376\nvalue = [12219, 44157]"] ;
42 -> 74 ;
75 [label="LastPosition2 <= 27.5\ngini = 0.177\nsamples = 37007\nvalue = [3639, 33368]"] ;
74 -> 75 ;
76 [label="LastPosition1 <= 22.5\ngini = 0.398\nsamples = 5520\nvalue = [1511, 4009]"] ;
75 -> 76 ;
77 [label="LastPosition2 <= 7.5\ngini = 0.26\nsamples = 3726\nvalue = [572, 3154]"] ;
76 -> 77 ;
78 [label="LastPosition1 <= 5.5\ngini = 0.487\nsamples = 748\nvalue = [313, 435]"] ;
77 -> 78 ;
79 [label="gini = 0.352\nsamples = 224\nvalue = [51, 173]"] ;
78 -> 79 ;
80 [label="gini = 0.5\nsamples = 524\nvalue = [262, 262]"] ;
78 -> 80 ;
81 [label="LastPosition1 <= 13.5\ngini = 0.159\nsamples = 2978\nvalue = [259, 2719]"] ;
77 -> 81 ;
82 [label="gini = 0.063\nsamples = 2020\nvalue = [66, 1954]"] ;
81 -> 82 ;
83 [label="gini = 0.322\nsamples = 958\nvalue = [193, 765]"] ;
81 -> 83 ;
84 [label="WeeksOnChart2 <= 145.5\ngini = 0.499\nsamples = 1794\nvalue = [939, 855]"] ;
76 -> 84 ;
85 [label="PositionTrend2 <= 22.5\ngini = 0.489\nsamples = 1128\nvalue = [479, 649]"] ;
84 -> 85 ;
86 [label="gini = 0.488\nsamples = 387\nvalue = [223, 164]"] ;
85 -> 86 ;
87 [label="gini = 0.452\nsamples = 741\nvalue = [256, 485]"] ;
85 -> 87 ;
88 [label="DailyFollowersMult1 <= 1.129\ngini = 0.427\nsamples = 666\nvalue = [460, 206]"] ;
84 -> 88 ;
89 [label="gini = 0.359\nsamples = 516\nvalue = [395, 121]"] ;
88 -> 89 ;
90 [label="gini = 0.491\nsamples = 150\nvalue = [65, 85]"] ;
88 -> 90 ;
91 [label="LastPosition1 <= 39.5\ngini = 0.126\nsamples = 31487\nvalue = [2128, 29359]"] ;
75 -> 91 ;
92 [label="LastPosition2 <= 99.5\ngini = 0.089\nsamples = 26570\nvalue = [1237, 25333]"] ;
91 -> 92 ;
93 [label="LastPosition1 <= 0.5\ngini = 0.052\nsamples = 22213\nvalue = [593, 21620]"] ;
92 -> 93 ;
94 [label="gini = 0.496\nsamples = 134\nvalue = [61, 73]"] ;
93 -> 94 ;
95 [label="gini = 0.047\nsamples = 22079\nvalue = [532, 21547]"] ;
93 -> 95 ;
96 [label="WeeksOnChart2 <= 52.5\ngini = 0.252\nsamples = 4357\nvalue = [644, 3713]"] ;
92 -> 96 ;
97 [label="gini = 0.312\nsamples = 3096\nvalue = [599, 2497]"] ;
96 -> 97 ;
98 [label="gini = 0.069\nsamples = 1261\nvalue = [45, 1216]"] ;
96 -> 98 ;
99 [label="LastPosition2 <= 48.5\ngini = 0.297\nsamples = 4917\nvalue = [891, 4026]"] ;
91 -> 99 ;
100 [label="LastPosition2 <= 39.5\ngini = 0.5\nsamples = 863\nvalue = [421, 442]"] ;
99 -> 100 ;
101 [label="gini = 0.47\nsamples = 416\nvalue = [259, 157]"] ;
100 -> 101 ;
102 [label="gini = 0.462\nsamples = 447\nvalue = [162, 285]"] ;
100 -> 102 ;
103 [label="LastPosition2 <= 99.5\ngini = 0.205\nsamples = 4054\nvalue = [470, 3584]"] ;
99 -> 103 ;
104 [label="gini = 0.109\nsamples = 3073\nvalue = [178, 2895]"] ;
103 -> 104 ;
105 [label="gini = 0.418\nsamples = 981\nvalue = [292, 689]"] ;
103 -> 105 ;
106 [label="LastPosition2 <= 53.5\ngini = 0.493\nsamples = 19369\nvalue = [8580, 10789]"] ;
74 -> 106 ;
107 [label="LastPosition1 <= 99.5\ngini = 0.378\nsamples = 5469\nvalue = [4085, 1384]"] ;
106 -> 107 ;
108 [label="LastPosition1 <= 70.5\ngini = 0.328\nsamples = 4815\nvalue = [3819, 996]"] ;
107 -> 108 ;
109 [label="LastPosition2 <= 42.5\ngini = 0.398\nsamples = 3032\nvalue = [2200, 832]"] ;
108 -> 109 ;
110 [label="gini = 0.315\nsamples = 1913\nvalue = [1538, 375]"] ;
109 -> 110 ;
111 [label="gini = 0.483\nsamples = 1119\nvalue = [662, 457]"] ;
109 -> 111 ;
112 [label="PositionTrend2 <= -31.0\ngini = 0.167\nsamples = 1783\nvalue = [1619, 164]"] ;
108 -> 112 ;
113 [label="gini = 0.482\nsamples = 37\nvalue = [15, 22]"] ;
112 -> 113 ;
114 [label="gini = 0.149\nsamples = 1746\nvalue = [1604, 142]"] ;
112 -> 114 ;
115 [label="DailyMentionsMult1 <= 0.99\ngini = 0.483\nsamples = 654\nvalue = [266, 388]"] ;
107 -> 115 ;
116 [label="DailyFollowersMult1 <= 0.173\ngini = 0.282\nsamples = 106\nvalue = [88, 18]"] ;
115 -> 116 ;
117 [label="gini = 0.0\nsamples = 6\nvalue = [0, 6]"] ;
116 -> 117 ;
118 [label="gini = 0.211\nsamples = 100\nvalue = [88, 12]"] ;
116 -> 118 ;
119 [label="WeeksOnChart1 <= 6.5\ngini = 0.439\nsamples = 548\nvalue = [178, 370]"] ;
115 -> 119 ;
120 [label="gini = 0.018\nsamples = 111\nvalue = [1, 110]"] ;
119 -> 120 ;
121 [label="gini = 0.482\nsamples = 437\nvalue = [177, 260]"] ;
119 -> 121 ;
122 [label="LastPosition1 <= 70.5\ngini = 0.438\nsamples = 13900\nvalue = [4495, 9405]"] ;
106 -> 122 ;
123 [label="LastPosition2 <= 100.5\ngini = 0.323\nsamples = 6836\nvalue = [1385, 5451]"] ;
122 -> 123 ;
124 [label="LastPosition2 <= 70.5\ngini = 0.225\nsamples = 5065\nvalue = [656, 4409]"] ;
123 -> 124 ;
125 [label="gini = 0.381\nsamples = 1741\nvalue = [446, 1295]"] ;
124 -> 125 ;
126 [label="gini = 0.118\nsamples = 3324\nvalue = [210, 3114]"] ;
124 -> 126 ;
127 [label="WeeksOnChart2 <= 165.0\ngini = 0.484\nsamples = 1771\nvalue = [729, 1042]"] ;
123 -> 127 ;
128 [label="gini = 0.496\nsamples = 1600\nvalue = [728, 872]"] ;
127 -> 128 ;
129 [label="gini = 0.012\nsamples = 171\nvalue = [1, 170]"] ;
127 -> 129 ;
130 [label="LastPosition1 <= 99.5\ngini = 0.493\nsamples = 7064\nvalue = [3110, 3954]"] ;
122 -> 130 ;
131 [label="LastPosition2 <= 73.5\ngini = 0.498\nsamples = 5035\nvalue = [2667, 2368]"] ;
130 -> 131 ;
132 [label="gini = 0.422\nsamples = 1314\nvalue = [917, 397]"] ;
131 -> 132 ;
133 [label="gini = 0.498\nsamples = 3721\nvalue = [1750, 1971]"] ;
131 -> 133 ;
134 [label="WeeksOnChart1 <= 6.5\ngini = 0.341\nsamples = 2029\nvalue = [443, 1586]"] ;
130 -> 134 ;
135 [label="gini = 0.01\nsamples = 413\nvalue = [2, 411]"] ;
134 -> 135 ;
136 [label="gini = 0.397\nsamples = 1616\nvalue = [441, 1175]"] ;
134 -> 136 ;
}